1403636866.351666 -0.272163 -0.030237 -0.522786 
1403636866.601666 -0.393464 0.080945 -0.801764 
1403636867.001667 -0.355733 0.020923 -0.708720 
1403636867.451666 -0.310784 0.026538 -0.599694 
1403636867.801666 -0.133332 0.103868 -0.180911 
1403636868.201667 0.018195 -0.236778 0.179674 
1403636868.601666 -0.011240 -0.157431 0.110263 
1403636869.901667 -0.025356 0.022859 0.085140 
1403636870.801666 -0.038448 0.514286 0.040659 
1403636871.601666 -0.028186 0.305236 0.066269 
1403636872.501667 -0.005550 0.335938 0.083184 
1403636873.051666 0.003700 0.277615 0.094320 
1403636873.701667 0.052348 0.196372 0.144780 
1403636874.751667 0.046869 0.069377 0.144618 
1403636875.251667 0.055988 0.101444 0.151447 
1403636875.851666 0.065284 0.136367 0.157849 
1403636876.451666 0.042518 0.163139 0.135503 
1403636876.951666 0.014877 0.135748 0.110781 
1403636877.401667 0.010434 0.122491 0.107627 
1403636878.001667 0.013963 0.105367 0.111685 
1403636878.501667 0.019638 0.123140 0.116684 
1403636879.451666 0.009651 0.049793 0.110589 
1403636880.751667 -0.034956 -0.008193 0.075591 
1403636881.551666 -0.028638 -0.004829 0.082533 
