1403636866.351666 -0.002276 0.023494 0.077335 
1403636866.601666 -0.002398 0.023100 0.077102 
1403636867.001667 -0.002706 0.022539 0.076650 
1403636867.451666 -0.002592 0.022407 0.076609 
1403636867.801666 -0.002532 0.021826 0.076720 
1403636868.201667 -0.002490 0.022299 0.076448 
1403636868.601666 -0.002476 0.022098 0.076680 
1403636869.901667 -0.002300 0.021628 0.077244 
1403636870.801666 -0.003038 0.020385 0.076510 
1403636871.601666 -0.003169 0.021623 0.077113 
1403636872.501667 -0.002925 0.021184 0.077340 
1403636873.051666 -0.002492 0.021214 0.077273 
1403636873.701667 -0.003245 0.021150 0.077169 
1403636874.751667 -0.002842 0.020632 0.077273 
1403636875.251667 -0.002695 0.020586 0.077319 
1403636875.851666 -0.002437 0.020594 0.077388 
1403636876.451666 -0.002752 0.020747 0.077470 
1403636876.951666 -0.003176 0.020990 0.077008 
1403636877.401667 -0.002789 0.021182 0.077300 
1403636878.001667 -0.002520 0.020771 0.077309 
1403636878.501667 -0.002563 0.021594 0.077052 
1403636879.451666 -0.003146 0.020833 0.077028 
1403636880.751667 -0.002711 0.020809 0.076794 
1403636881.551666 -0.002608 0.020803 0.077008 
